3.457719300695324417e-18
3.457719300695324417e-18
3.457719300695324417e-18
3.457719300695324417e-18
3.457719300695324417e-18
3.457719300695324417e-18
3.457719300695324417e-18
3.457719300695324417e-18
3.457719300695324417e-18
3.457719300695324417e-18
3.457719300695324417e-18
3.457719300695324417e-18
3.457719300695324417e-18
3.457719300695324417e-18
3.457719300695324417e-18
3.457719300695324417e-18
3.457719300695324417e-18
3.457719300695324417e-18
3.457719300695324417e-18
3.457719300695324417e-18
3.457719300695324417e-18
3.457719300695324417e-18
3.457719300695324417e-18
3.457719300695324417e-18
3.457719300695324417e-18
3.457719300695324417e-18
3.457719300695324417e-18
3.457719300695324417e-18
3.457719300695324417e-18
3.457719300695324417e-18
3.457719300695324417e-18
3.457719300695324417e-18
3.457719300695324417e-18
3.457719300695324417e-18
3.457719300695324417e-18
3.457719300695324417e-18
3.457719300695324417e-18
3.457719300695324417e-18
3.457719300695324417e-18
3.457719300695324417e-18
3.457719300695324417e-18
3.457719300695324417e-18
3.457719300695324417e-18
3.457719300695324417e-18
3.457719300695324417e-18
3.457719300695324417e-18
3.457719300695324417e-18
3.457719300695324417e-18
3.457719300695324417e-18
3.457719300695324417e-18
3.457719300695324417e-18
3.457719300695324417e-18
3.457719300695324417e-18
3.457719300695324417e-18
3.457719300695324417e-18
3.457719300695324417e-18
3.457719300695324417e-18
3.457719300695324417e-18
3.457719300695324417e-18
3.457719300695324417e-18
3.457719300695324417e-18
3.457719300695324417e-18
3.457719300695324417e-18
3.457719300695324417e-18
3.457719300695324417e-18
3.457719300695324417e-18
3.457719300695324417e-18
3.457719300695324417e-18
3.457719300695324417e-18
3.457719300695324417e-18
3.457719300695324417e-18
3.457719300695324417e-18
3.457719300695324417e-18
3.457719300695324417e-18
3.457719300695324417e-18
3.457719300695324417e-18
3.457719300695324417e-18
3.457719300695324417e-18
3.457719300695324417e-18
3.457719300695324417e-18
3.457719300695324417e-18
3.457719300695324417e-18
3.457719300695324417e-18
3.457719300695324417e-18
3.457719300695324417e-18
3.457719300695324417e-18
3.457719300695324417e-18
3.457719300695324417e-18
3.457719300695324417e-18
3.457719300695324417e-18
3.457719300695324417e-18
3.457719300695324417e-18
3.457719300695324417e-18
3.457719300695324417e-18
3.457719300695324417e-18
3.457719300695324417e-18
3.457719300695324417e-18
3.457719300695324417e-18
3.457719300695324417e-18
-3.448272758069665907e-05
-4.611432264162047134e-05
-1.142547104920213979e-05
3.457719300695324417e-18
3.457719300695324417e-18
3.457719300695324417e-18
3.457719300695324417e-18
3.457719300695324417e-18
3.457719300695324417e-18
3.457719300695324417e-18
3.457719300695324417e-18
3.457719300695324417e-18
3.457719300695324417e-18
3.457719300695324417e-18
3.457719300695324417e-18
3.457719300695324417e-18
3.457719300695324417e-18
3.457719300695324417e-18
3.457719300695324417e-18
3.457719300695324417e-18
3.457719300695324417e-18
-1.633676368911179521e-04
-1.679781910353764251e-04
9.346097596801623191e-05
3.042296164794426258e-04
3.457719300695324417e-18
-4.276832183713953389e-05
-2.374272090614876738e-04
-4.169602509800074126e-04
-3.196722483785141653e-04
-4.823282426713432599e-05
-3.420089798524087203e-05
-4.828917277029863521e-04
-1.554433529446286647e-04
-2.908872953346621436e-04
-5.749972774455187592e-04
-2.119658659085330759e-04
3.457719300695324417e-18
3.457719300695324417e-18
3.457719300695324417e-18
3.457719300695324417e-18
3.457719300695324417e-18
3.457719300695324417e-18
3.457719300695324417e-18
3.457719300695324417e-18
3.457719300695324417e-18
3.457719300695324417e-18
3.457719300695324417e-18
3.457719300695324417e-18
4.648057144253014489e-05
2.715072937399060841e-04
5.793566582045788947e-04
4.763105959935922860e-04
-1.459041179209185583e-04
-4.360128635344418278e-05
-8.993204462016608813e-05
-7.581716470455453737e-04
-7.759903116190422587e-04
7.745014095842730226e-05
-6.426465967016611446e-04
-1.118772217432051396e-03
-8.043816234525973368e-04
-8.906987379838246467e-04
-1.129343746188869041e-03
-4.186860784416602675e-04
3.457719300695324417e-18
3.457719300695324417e-18
3.457719300695324417e-18
3.457719300695324417e-18
3.457719300695324417e-18
3.457719300695324417e-18
3.457719300695324417e-18
3.457719300695324417e-18
3.457719300695324417e-18
3.457719300695324417e-18
3.457719300695324417e-18
-2.028325342849937281e-04
-4.416769507397671373e-04
2.063635104258307144e-04
4.284065397108794944e-04
2.292623850410074480e-04
2.207015156953242663e-04
1.442372238960684552e-04
-1.830389583951326558e-04
4.499608662592541699e-04
3.356457768880744094e-04
5.830727031680993941e-04
-1.402162576938608524e-04
-2.319909348257847951e-04
3.298324076603658143e-04
-7.661881489047403212e-05
-4.681390047709519829e-04
-4.001091897129344902e-04
3.457719300695324417e-18
3.457719300695324417e-18
3.457719300695324417e-18
3.457719300695324417e-18
3.457719300695324417e-18
3.457719300695324417e-18
3.457719300695324417e-18
1.028539235631505098e-05
3.688806172249198072e-04
6.050309052023151220e-04
2.949036101276654638e-04
3.052517289940742077e-05
4.675462743536465030e-05
9.514331077883336069e-04
1.264840131985891765e-03
7.288521974792790169e-04
6.653294377318213701e-04
1.617784971711674381e-03
1.070199251373846411e-03
-7.515482836757190316e-05
3.390269776034477139e-04
-4.093237898310955031e-04
3.137858321732392994e-04
-7.061343271080660830e-05
8.587535359778927877e-04
5.351139216830340774e-04
4.927925665394640312e-04
-9.572966237849058944e-05
7.747369825320744963e-06
3.457719300695324417e-18
3.457719300695324417e-18
3.457719300695324417e-18
3.457719300695324417e-18
3.457719300695324417e-18
3.457719300695324417e-18
3.728413756675830909e-05
8.818181433274137728e-04
9.826350421388754374e-04
7.047602506642192208e-04
6.621114351789044719e-04
9.963877713356245492e-04
1.094537759085205527e-03
1.310047135497603103e-03
5.545694063283175459e-04
7.650997776235705580e-04
9.905086065297172629e-04
2.858976372747385852e-04
3.049579620907211784e-04
8.662953805714827468e-04
1.784799730176389783e-04
4.141713679489493404e-06
-4.046944838198343326e-04
3.318193239325268142e-04
4.666465876567074526e-04
7.594119294688475748e-04
-1.302206527278715190e-04
2.789045710385760219e-05
3.457719300695324417e-18
3.457719300695324417e-18
3.457719300695324417e-18
3.457719300695324417e-18
3.457719300695324417e-18
3.457719300695324417e-18
5.498699908742386746e-06
5.477770437765079690e-04
6.451038099753224429e-04
5.144320340098949406e-04
3.091014501955794314e-04
4.015381175614897349e-04
-2.122014035633224251e-05
2.649416589872980354e-04
-5.806756160679852610e-04
7.372834322543648242e-04
2.365318706646706525e-04
-7.557016856806978832e-04
1.115514862284389304e-04
5.224649011922067465e-05
1.407176832882034445e-04
-8.947938606606466562e-04
1.661962790518142546e-04
1.409707228574699539e-04
-3.135774425116609910e-04
-1.431730561765793316e-04
-9.840930317738255802e-05
3.457719300695324417e-18
3.457719300695324417e-18
3.457719300695324417e-18
3.457719300695324417e-18
3.457719300695324417e-18
3.457719300695324417e-18
3.457719300695324417e-18
-9.853682781560843700e-06
3.570992593287892819e-04
2.843136955348152489e-04
1.492139269018157813e-04
3.745125462564424454e-04
2.226623452273085359e-04
3.511156952060833360e-04
9.092079501626987488e-05
-9.499207117369219884e-06
5.110793756410947309e-04
-6.809873577021370930e-04
-2.268819247368228538e-04
-5.039382149240035063e-04
3.337437752382909403e-04
1.162198215445964808e-03
3.344929032365433208e-04
7.335826228293249908e-04
1.604747177271786832e-04
-5.031299681729084353e-04
2.440116835473175763e-04
1.486425487662555722e-04
3.457719300695324417e-18
3.457719300695324417e-18
3.457719300695324417e-18
3.457719300695324417e-18
3.457719300695324417e-18
3.457719300695324417e-18
3.457719300695324417e-18
-1.021562258163854737e-05
3.281963933336834948e-04
3.630901744390507233e-05
1.971243209761004266e-04
4.424199351117721348e-04
4.106277382725453083e-04
7.142779637233523469e-04
8.013202669769722191e-04
8.585286028430309238e-04
-5.460357779231072645e-05
-4.695799396086138672e-04
-1.833053699607492667e-03
-8.033001291990877991e-04
3.686549127658281418e-04
6.543045772980472319e-04
9.104289583457331929e-04
-4.179738369563837873e-05
-5.711075343655045962e-04
1.722891552424977068e-04
3.882392865892706738e-04
5.301652886437408299e-05
3.457719300695324417e-18
3.457719300695324417e-18
3.457719300695324417e-18
3.457719300695324417e-18
3.457719300695324417e-18
3.457719300695324417e-18
3.457719300695324417e-18
-1.021562258163854737e-05
-1.017540721473955054e-05
-1.017540721473955054e-05
1.062430810547533725e-05
3.044667049426103434e-04
4.996872958906664218e-04
2.483485306090863062e-04
2.964025831045455773e-04
5.559306144373231222e-04
-5.521673995626389438e-04
-1.237874538977461105e-03
-1.388302268590990707e-03
-1.132927472755064632e-03
1.785237121831798797e-05
2.381282844948855431e-04
-7.346433684766817771e-04
-1.155291562406246026e-04
-3.107685715625943491e-05
5.810427680886335331e-04
8.235339993273165874e-06
-1.924163776377004571e-05
3.457719300695324417e-18
3.457719300695324417e-18
3.457719300695324417e-18
3.457719300695324417e-18
3.457719300695324417e-18
3.457719300695324417e-18
3.457719300695324417e-18
-5.751488572644910089e-06
-1.017540721473955054e-05
-6.394992752810808460e-06
-6.537464531615915560e-04
-1.516014136018631136e-04
2.608269192662130364e-04
4.147531199872210236e-04
5.682546802272181105e-04
-5.231923106154529697e-04
-7.236567112842471434e-04
-6.538992706974533259e-05
-1.635811507405826593e-03
-7.342906819355545390e-04
2.995179735762567891e-04
-4.677632744958225568e-04
1.167709346836813830e-05
2.865301834008462771e-04
4.330815616375582205e-04
2.102983413699944311e-04
-2.606902907486556263e-05
3.457719300695324417e-18
3.457719300695324417e-18
3.457719300695324417e-18
3.457719300695324417e-18
3.457719300695324417e-18
3.457719300695324417e-18
3.457719300695324417e-18
3.457719300695324417e-18
-5.027537855997098737e-06
-1.017540721473955054e-05
-5.711269318393776024e-06
-2.357820502303528633e-04
-5.295913828227128122e-04
-1.407134737713551748e-04
3.567639430543749469e-04
-9.300605153135031006e-05
-3.962269842942872005e-04
3.957385501198558897e-04
2.164575331277274618e-04
-6.361211379003036065e-04
-8.109350659295740701e-05
-5.503421903557016845e-04
4.086281771536843187e-04
1.458950252801930522e-03
1.188706971138426931e-03
3.663919587849708871e-04
-1.604763285835788568e-05
3.457719300695324417e-18
3.457719300695324417e-18
3.457719300695324417e-18
3.457719300695324417e-18
3.457719300695324417e-18
3.457719300695324417e-18
3.457719300695324417e-18
3.457719300695324417e-18
3.457719300695324417e-18
-6.475430245533786821e-06
-1.017540721473955054e-05
-1.568567392940139853e-06
2.901326709492863776e-06
-6.171437553843242205e-05
-9.704291941800942877e-05
3.378460541538695302e-04
2.731593654063359179e-04
2.697861033844651548e-04
9.754621610592509708e-05
-6.120461121919913618e-04
-9.770531880291116744e-05
2.980033353101872083e-05
3.245286422309714546e-04
9.170191134019423877e-04
1.148460258209969267e-03
8.300701238584681048e-04
4.148340696554758786e-04
-1.260714642163549785e-04
-7.208906811403392452e-05
3.457719300695324417e-18
3.457719300695324417e-18
3.457719300695324417e-18
3.457719300695324417e-18
3.457719300695324417e-18
3.457719300695324417e-18
3.457719300695324417e-18
3.457719300695324417e-18
-1.021562258163854737e-05
-5.148196902466843149e-06
-1.206468579621409585e-07
3.457719300695324417e-18
-3.481217003218988436e-04
-2.610053310298666844e-04
-4.407578193204194337e-05
-2.141211704642434206e-04
2.470924227744394517e-04
-4.311156896045677126e-04
1.060027937537778674e-04
-9.516428131404294137e-05
2.483807367197227471e-04
-4.355724920959310983e-05
-9.941111532489863868e-05
5.100342239047784556e-05
-2.620029266399630881e-05
1.692030001949666144e-04
-2.755860112830414775e-04
-1.916474749128236157e-04
3.457719300695324417e-18
3.457719300695324417e-18
3.457719300695324417e-18
3.457719300695324417e-18
3.457719300695324417e-18
3.457719300695324417e-18
3.457719300695324417e-18
3.457719300695324417e-18
-2.614315015793430210e-06
-8.043039887990625694e-08
3.457719300695324417e-18
3.457719300695324417e-18
-1.248359264804181613e-04
-1.838182050826120059e-04
6.440141967097506382e-05
-2.193101148439312526e-04
1.649125218790057723e-04
1.856894632069756688e-05
1.734731890013921439e-04
2.406059427191535453e-04
2.064182341172263323e-05
-7.364809776069067455e-04
5.285998755510650790e-05
4.276246379142371510e-04
2.040344844300797820e-04
5.911823258241362725e-05
-8.308412056082806413e-05
8.572335791955582919e-05
2.321233602376369210e-05
3.457719300695324417e-18
3.457719300695324417e-18
3.457719300695324417e-18
3.457719300695324417e-18
3.457719300695324417e-18
3.457719300695324417e-18
3.457719300695324417e-18
3.457719300695324417e-18
3.457719300695324417e-18
3.457719300695324417e-18
3.457719300695324417e-18
-1.558627096109299051e-04
-7.591296204643330041e-04
1.884142392696135375e-04
2.797402272414593752e-04
9.958520402599457463e-04
5.446188981147679622e-04
7.363119591435819591e-04
-9.530732785772286415e-05
-5.851259733569014057e-04
-7.830674123635890512e-04
1.781923817382342077e-04
2.302422704063262593e-04
2.313695744100571034e-04
1.224834728582094019e-04
1.399052197170615305e-04
3.653722098775580253e-04
4.131629682250787384e-04
3.457719300695324417e-18
3.457719300695324417e-18
3.457719300695324417e-18
3.457719300695324417e-18
3.457719300695324417e-18
3.457719300695324417e-18
3.457719300695324417e-18
3.457719300695324417e-18
3.457719300695324417e-18
-1.974505182538914568e-05
-2.895827316081624864e-04
-6.046852544609582604e-04
-5.409452136215323883e-04
-4.328798927548619530e-04
7.497233437679411605e-05
6.462726670591103497e-04
-9.447627471611268646e-05
5.519486291401994862e-04
2.768685819974634529e-04
-4.943859041303992011e-04
-9.179513190395197043e-04
-5.716952417415623088e-04
-5.562253029746578757e-04
-5.284389892955615930e-04
-3.793495558435149495e-04
-1.805621335142660461e-04
7.241957545578008590e-05
9.284822861901316840e-05
3.457719300695324417e-18
3.457719300695324417e-18
3.457719300695324417e-18
3.457719300695324417e-18
3.457719300695324417e-18
3.457719300695324417e-18
3.457719300695324417e-18
3.457719300695324417e-18
-3.641696755197222613e-04
-3.663633945917843526e-04
-5.172597144298344673e-04
-3.567241862872353613e-04
-2.908334507624590957e-04
-9.075547161945669817e-05
1.507822272762741665e-05
-4.334066297965138807e-04
-2.073379974700731020e-04
-3.608016972132740567e-05
-5.353241937346424773e-04
-2.187596325698191004e-04
-3.947407504731517539e-04
-7.136643759670770540e-04
-4.488273326699527871e-04
-2.669150538955697579e-04
-1.425277750042696484e-04
-1.111682292870540583e-05
3.457719300695324417e-18
3.457719300695324417e-18
3.457719300695324417e-18
3.457719300695324417e-18
3.457719300695324417e-18
3.457719300695324417e-18
3.457719300695324417e-18
3.457719300695324417e-18
3.457719300695324417e-18
3.457719300695324417e-18
3.457719300695324417e-18
-6.673365548661583184e-05
2.480847642829754271e-04
-9.661631198859186014e-05
-1.503345178080110831e-04
-3.556891286926204326e-04
-8.179769502493734268e-04
1.831372409883682837e-05
2.683817423437304226e-04
-1.883460807427691488e-04
-1.150299508312799756e-04
-4.855799782454634693e-05
-5.326476199564196269e-05
-3.742417949220262449e-04
-1.812603323634570239e-04
-1.760722671804494947e-04
-1.666608943460099086e-04
-6.060832047932908232e-05
3.457719300695324417e-18
3.457719300695324417e-18
3.457719300695324417e-18
3.457719300695324417e-18
3.457719300695324417e-18
3.457719300695324417e-18
3.457719300695324417e-18
3.457719300695324417e-18
3.457719300695324417e-18
3.457719300695324417e-18
6.106691179841404872e-05
3.776520637006216229e-04
4.607473817167703463e-04
-2.792912372676119499e-04
-9.131800114157882179e-04
-5.125819289288508504e-04
-3.368541489272293106e-04
-4.068176838742066314e-04
1.516929352521378710e-04
2.974987193838804717e-04
-2.830291385485869761e-06
3.241902405072846858e-04
3.456326705069800846e-04
-2.346850518830551101e-04
-1.649789958265644708e-04
-1.728144827126695078e-04
-1.666608943460099086e-04
-1.218707754767946329e-04
3.457719300695324417e-18
3.457719300695324417e-18
3.457719300695324417e-18
3.457719300695324417e-18
3.457719300695324417e-18
3.457719300695324417e-18
3.457719300695324417e-18
3.457719300695324417e-18
3.457719300695324417e-18
3.457719300695324417e-18
5.953344595989828840e-04
4.721802707801204353e-04
3.755349795176029463e-04
-2.584804545072354556e-04
-5.611473153995964270e-04
7.635297628573143333e-05
-5.920742625224488173e-04
-6.241386964791585462e-05
4.546924569256728384e-04
2.176919218083297276e-04
-3.172758408203652652e-04
4.981468992780299556e-04
-5.686657870365148759e-05
-2.406402096243250325e-04
-5.963654546947619041e-05
-1.683903336257370142e-04
-1.666608943460099086e-04
-6.060832047932908232e-05
3.457719300695324417e-18
3.457719300695324417e-18
3.457719300695324417e-18
3.457719300695324417e-18
3.457719300695324417e-18
3.457719300695324417e-18
3.457719300695324417e-18
3.457719300695324417e-18
3.457719300695324417e-18
3.457719300695324417e-18
7.491777876089373385e-04
3.419476118794086291e-04
-1.874166243411730360e-04
-5.178444645580016972e-05
4.350904261074944190e-05
1.828537799390819794e-04
5.195749541130211977e-04
5.142238151747358316e-04
9.645236481325300754e-04
2.277240693246241428e-04
-7.450739293312785849e-05
8.385207094568457168e-05
-4.737664043550953092e-05
8.693067079296198474e-05
-9.129793319982075660e-06
3.457719300695324417e-18
3.457719300695324417e-18
3.457719300695324417e-18
3.457719300695324417e-18
3.457719300695324417e-18
3.457719300695324417e-18
3.457719300695324417e-18
3.457719300695324417e-18
3.457719300695324417e-18
3.457719300695324417e-18
3.457719300695324417e-18
3.457719300695324417e-18
3.457719300695324417e-18
9.637289564941145569e-04
5.454044846665058064e-04
2.534760076621213006e-04
1.070251012030349111e-04
-2.036747395884046404e-04
-1.874406108361792260e-04
2.298496578857363000e-04
1.967872310777825579e-04
4.568466475045447291e-04
2.554717532207944459e-04
1.180899201688804097e-04
4.336196453892822694e-04
8.065998429157193944e-04
5.370011763402869403e-04
3.897889101053123771e-05
3.457719300695324417e-18
3.457719300695324417e-18
3.457719300695324417e-18
3.457719300695324417e-18
3.457719300695324417e-18
3.457719300695324417e-18
3.457719300695324417e-18
3.457719300695324417e-18
3.457719300695324417e-18
3.457719300695324417e-18
3.457719300695324417e-18
3.457719300695324417e-18
3.457719300695324417e-18
3.457719300695324417e-18
2.754687578067561613e-04
5.621788263178101666e-04
2.241876375873145014e-04
-1.574265611664433850e-05
-4.513412480932513606e-04
1.327776469822265749e-04
3.457719300695324417e-18
-1.389016188630868925e-04
-3.132089395011065642e-04
-3.579297914747673389e-05
7.742201361049760823e-05
6.520253529909378907e-04
6.787850489736184552e-04
2.901326709492863776e-06
3.457719300695324417e-18
3.457719300695324417e-18
3.457719300695324417e-18
3.457719300695324417e-18
3.457719300695324417e-18
3.457719300695324417e-18
3.457719300695324417e-18
3.457719300695324417e-18
3.457719300695324417e-18
3.457719300695324417e-18
3.457719300695324417e-18
3.457719300695324417e-18
3.457719300695324417e-18
3.457719300695324417e-18
3.457719300695324417e-18
3.457719300695324417e-18
3.457719300695324417e-18
3.457719300695324417e-18
3.457719300695324417e-18
3.457719300695324417e-18
3.457719300695324417e-18
3.457719300695324417e-18
3.457719300695324417e-18
3.457719300695324417e-18
3.457719300695324417e-18
3.457719300695324417e-18
3.457719300695324417e-18
3.457719300695324417e-18
3.457719300695324417e-18
3.457719300695324417e-18
3.457719300695324417e-18
3.457719300695324417e-18
3.457719300695324417e-18
3.457719300695324417e-18
3.457719300695324417e-18
3.457719300695324417e-18
3.457719300695324417e-18
